18 50
NOUN 0.22489883 0.43353045 -0.32400745 -0.55593973 -0.022810519 -0.3097428 -0.057642248 0.04176422 0.016512135 -0.15206048 -0.3998666 -0.010755718 -0.24152713 -0.15465221 0.00072256004 -0.5263601 -0.24180308 0.3849312 -0.13246627 0.13291189 -0.084561236 -0.021142138 0.24269457 0.061760448 -0.34190592 -0.26230395 -0.09494815 0.069347955 0.30145386 0.19057655 0.23053816 0.41169816 0.03256795 -0.005641904 -0.1339867 -0.2697171 0.07479652 0.38846558 -0.16617776 0.31835824 -0.216773 -0.4285196 -0.077213705 -0.41785997 -0.54913 0.2603974 -0.2035886 -0.085092865 -0.298763 0.5891664
PUNCT -0.24205779 0.16017373 0.025133047 0.15885592 -0.11993006 -0.062062833 0.18346554 0.34202293 -0.011488713 0.072739996 -0.23526064 0.24632105 0.07136655 -0.27526164 -0.22131284 -0.16189441 -0.44535026 0.26734424 -0.044726737 -0.06796998 0.12509638 -0.3104714 0.16830681 0.18614799 0.11259853 -0.1973815 -0.03806429 0.14876252 0.14229573 -0.20074596 0.101815715 0.22470851 -0.40417737 -0.44834456 -0.14510468 -0.0021014728 0.017677693 0.5925525 -0.058020767 0.740063 -0.55376244 0.0076725883 -0.00497415 -0.47766778 0.033966243 -0.10008486 0.21939486 0.17172816 0.322031 0.24774376
VERB -0.38085124 0.12584133 0.20879754 -0.4426614 -0.017562835 -0.03750102 -0.39621302 -0.0675977 0.07627508 -0.04019619 0.56922734 0.28659636 0.23099391 -0.48156562 -0.2010375 -0.1662392 0.007944735 0.27790475 0.0989062 -0.40543616 0.1661699 0.5789831 0.44087622 0.18894604 0.048571605 0.016299998 0.021955634 0.40131655 0.40876934 0.059905127 -0.15315977 -0.123458035 0.5488139 -0.039878532 -0.10576229 -0.0268729 -0.36863044 0.5108401 -0.09345735 0.26342186 -0.32189474 -0.8514816 -0.12127999 -0.09207823 -0.01851128 -0.15803738 -0.28880545 -0.7986452 -0.15485951 -0.3690147
ADP 0.16967843 0.24197501 -0.1307053 -0.0038663235 0.4040034 -0.23492701 -0.09781318 0.062208567 0.043416027 0.023567805 0.13974483 0.271686 -0.33169308 -0.29533538 0.024924852 -0.36737528 -0.036704898 -0.1965285 0.027312562 0.14847557 -0.27435073 -0.018808044 0.09480561 0.07203342 -0.26632255 -0.27649274 -0.11042487 0.1030465 0.28262615 -0.052454412 0.10361308 -0.0013821751 -0.47788456 -0.14727445 -0.06702427 -0.3426481 0.19606246 0.4393828 0.17733233 0.6203812 -0.7521635 -0.075867675 0.09991557 -0.61078936 -0.07293807 -0.04380357 0.18380015 0.113036305 0.025570108 0.6618341
DET -0.12852249 0.33813614 -0.016797652 -0.17685075 -0.19264391 -0.25306877 0.05914764 -0.15453456 -0.10966651 0.05604398 -0.16029082 -0.48056486 -0.18002136 0.052020196 -0.2679448 -0.041073885 -0.19528566 0.3500173 0.4719488 -0.12830201 -0.16699694 0.17371926 -0.2732161 0.5301602 -0.09419145 -0.334751 -0.15900019 0.25167075 0.2745667 -0.0800835 -0.060478456 0.21223 -0.18789472 -0.016745197 -0.0445889 -0.03444448 0.3407348 0.7208683 0.111987635 0.31746817 -0.23367979 -0.1201595 -0.29680803 -0.18061471 0.12675421 0.05924326 -0.055841167 0.2538492 -0.24495278 0.55097467
PRON -0.34524006 -0.075003155 -0.2073359 -0.46862105 -0.24494603 0.027266009 0.08018975 -0.4650479 0.31680617 0.18334788 -0.22220549 -0.1931046 0.12588634 0.028253602 -0.2670141 0.19177713 0.060723 0.3385035 0.4289431 -0.2621315 0.33724296 0.24422763 0.06632533 0.06663212 0.068323664 0.36318865 0.52057505 0.10894489 0.10815106 -0.13331842 -0.17729175 0.1644652 -0.0942378 -0.014658049 -0.5466237 -0.026187092 -0.66233975 0.4005252 -0.18864591 -0.37401512 0.3570352 -0.7292122 -0.27768946 0.5248245 0.016650908 -0.044308644 -0.8237792 -0.38981605 -0.41411793 -0.3427524
ADJ 0.13730808 0.2999257 -0.070852496 -0.3090047 -0.10280195 -0.41894853 -0.15018584 0.049205314 0.034954112 -0.13814132 -0.07541434 -0.15104488 -0.030590547 -0.041261453 0.079101324 -0.4043156 -0.10138855 0.2118947 0.087425336 -0.083813146 -0.15760267 0.39299333 -0.087835275 0.010665056 -0.34725082 -0.09377722 -0.26125905 0.20131227 0.19683056 0.14459802 0.0036995616 0.2383884 -0.0229111 -0.2521623 -0.009720401 -0.21449117 0.102500096 0.735234 -0.317413 0.254584 -0.22700126 -0.3200418 -0.1658089 -0.26178607 -0.25618428 0.35480568 -0.0811309 -0.10608365 -0.2834872 0.4501754
PROPN -0.5420264 0.12815315 0.33025038 0.6498823 0.17551717 0.034281276 -0.70441693 0.30130914 -0.046935447 0.3993241 0.97724086 0.5249642 -0.55096865 -0.59890586 -0.4318531 -0.7646382 -1.3328798 0.49007478 0.27504364 0.0060857944 -1.1125766 -0.7697649 0.02173321 0.99356985 0.10272094 -1.4236063 0.6046265 -0.08255726 1.529032 -0.35662186 0.24532382 0.4692275 -0.26445594 0.008011374 -0.13051735 -0.066243805 0.5051569 -0.49052185 0.88206726 0.3358982 -0.56564456 0.9949602 0.3242029 -0.87366194 0.58427185 0.038195074 1.1663612 0.58351415 0.8918041 0.527545
AUX -0.25599816 0.31073213 0.016757198 -0.40642264 -0.25219864 -0.1922298 0.030207014 -0.13219945 0.26347402 -0.076632604 0.038711496 0.39394602 0.06959872 -0.36906105 -0.036537398 0.15568173 -0.14711738 0.01145052 0.2905924 -0.38325498 0.40014148 0.41869727 0.2680497 -0.14560083 0.14531915 0.30120707 0.16925977 0.3194528 0.27864143 -0.16036984 -0.4194419 -0.09712982 0.045133885 -0.00043534674 -0.31281942 0.061783325 -0.5707163 0.3712554 -0.049542926 0.10774305 -0.20288649 -0.6921524 0.15467751 0.026292948 -0.21690662 -0.42089444 -0.17672433 -0.3140282 -0.12902234 0.08601023
ADV -0.25624174 -0.066074826 -0.0512751 -0.25504106 -0.24737863 -0.17829178 0.0010947938 -0.11809802 0.16507885 0.044371076 -0.09060157 -0.04543188 0.16934767 -0.07695918 -0.050292134 -0.110331714 -0.028913913 0.22177218 0.38396505 -0.23786439 0.2148488 0.3769317 -0.063204065 -0.13460577 0.02126793 0.3434828 0.27433786 0.24023159 0.14727777 -0.0018346187 -0.2998931 0.14252715 -0.099118866 -0.21289991 -0.23688158 -0.006661621 -0.51967543 0.59407336 -0.22604541 -0.15474154 0.14222258 -0.52952063 -0.152129 0.3746849 -0.008639248 0.105765045 -0.37350476 -0.31809124 -0.2915429 -0.095905
CCONJ 0.053095806 0.28621593 -0.0323451 0.047862116 -0.15353861 -0.22515771 0.2348439 0.03916536 0.017261688 -0.05875695 -0.24281332 -0.08787999 -0.109398566 -0.07509534 -0.015559632 0.15407921 -0.1239347 -0.11796793 0.16866924 -0.039282497 0.0695766 -0.026374007 -0.13050982 0.00068741926 0.05561688 0.031541396 -0.28428403 0.24974212 -0.02100906 -0.103653364 -0.095618345 0.09781847 -0.44139627 -0.16083115 -0.047605626 -0.0090537965 0.11133292 0.69392794 -0.09972113 0.4261251 -0.4691934 -0.33658904 -0.06027647 -0.14600581 -0.07304227 -0.45366204 -0.011388302 -0.07342813 -0.048449542 0.31788653
PART -0.23437965 -0.0033505815 -0.13302542 -0.022157807 -0.034756362 -0.013521648 0.12940237 -0.5282035 0.4301334 0.24988571 -0.06505734 -0.17427245 -0.09873342 0.13283 -0.27009308 0.54665613 0.10343598 -0.12911564 0.46898946 -0.31719786 0.13975257 0.14229117 -0.17006616 0.15784825 -0.009005513 0.2884147 0.36321756 0.015636064 0.014618935 -0.46105933 -0.11119679 -0.011343874 -0.62517315 -0.12949216 -0.7254318 -0.16834083 -0.3668193 0.40607837 -0.039630126 -0.17142534 0.008306583 -0.3658965 -0.16736881 0.25752518 0.2887126 -0.3026216 -0.58459634 0.003293916 -0.10321734 -0.13839328
NUM -0.11185284 -0.5921791 -0.5691447 0.2693668 0.6418301 0.3772307 0.28426227 0.9028857 -0.88985324 0.382787 -0.69495714 0.045552697 -0.3840772 -0.6777369 -0.37225723 -1.8923417 -0.2727938 0.7977741 -0.115985304 1.2715759 -0.38106674 -1.5088068 0.2179655 0.25007582 0.25722563 -0.8041843 0.5732209 0.13809924 0.4348374 0.8646211 0.60087985 0.70126337 -0.5769103 -0.057973783 0.9630316 0.0073903347 0.58565664 0.23400867 1.0318676 1.2020253 -0.9090944 0.6254401 -0.23722701 -0.41354406 0.39389548 -0.045046326 0.7106426 0.008271593 0.31962526 0.15125278
SCONJ -0.17711622 -0.15399608 0.016894663 0.07124916 -0.016883515 -0.047494873 -0.02468348 -0.3618796 0.37354475 0.117722206 0.22945999 0.123422265 0.03800674 -0.028049896 -0.0262004 0.3939475 0.18459228 -0.3432964 0.36095932 -0.3068593 0.1719237 0.26796684 -0.05677144 -0.18206102 0.098446146 0.46855775 0.23843749 0.13426347 -0.019582262 -0.36678332 -0.3167308 -0.15059483 -0.55279154 -0.23219639 -0.535169 -0.13868456 -0.57164574 0.581264 -0.167702 -0.15114681 -0.09706582 -0.5758295 -0.008084784 0.38718635 0.18534857 -0.30648693 -0.4923967 -0.4128406 -0.12441635 -0.19273496
X 0.36565235 0.6862251 -0.4443456 0.47408065 -0.8719455 -0.4903282 0.5648445 1.2975962 0.35830984 -0.26446956 -1.5176777 -0.28578353 0.19390325 -0.021387564 -0.14343368 -0.46366835 -1.1118702 0.70483077 -1.1203178 -0.04853797 -0.20374303 -0.91989887 -0.34586167 -0.20838712 -0.27062804 -0.51982856 -0.41096556 -0.039235722 -0.060788855 0.5211474 1.4521556 1.4469204 -0.3318919 -1.157972 -0.008955515 0.044881903 1.1693332 -0.1335238 -0.7911113 0.9954892 -0.71436745 0.87701416 -0.39101255 -1.4914387 -0.13324402 -1.3406446 0.93968624 -0.13354765 1.6360142 -1.8091729
SYM -0.06882487 -1.0485629 -0.92454433 0.14034906 0.70006734 0.58494055 0.67820865 1.0252677 -0.9785919 0.4124177 -1.3202871 0.10735526 -0.18504897 -0.7302028 -0.2805041 -2.120848 0.08652701 0.80569845 -0.24142729 1.6486402 0.12702507 -1.8477261 0.41543946 -0.3120099 0.48096764 -0.23643051 0.8513012 0.16776001 -0.020892136 1.1615064 0.563498 0.7973173 -0.83544016 -0.17253977 1.0831698 0.05657626 0.07954053 0.47441053 0.90073866 1.2465398 -0.8424521 0.189266 -0.34742865 0.11476093 0.24908413 -0.16002546 0.2515519 -0.50357705 0.08776729 -0.24533103
INTJ -0.23379207 -0.13871732 -0.27120045 -0.057111654 -0.32002574 -0.013478094 0.2781389 0.13811937 0.31095085 0.11401266 -0.47729406 -0.10413962 0.21368933 -0.15385732 -0.14797807 0.023648616 -0.10093502 0.15495677 0.02726986 -0.12282841 0.30308378 -0.13055031 -0.12678951 -0.26762158 0.1355936 0.39602402 0.43210688 0.1232405 0.057098877 0.22532482 0.18971021 0.38946548 -0.15083654 -0.25558493 -0.2434384 0.09814983 -0.35691017 0.045810916 -0.19750363 -0.10954267 -0.02694627 -0.36656454 -0.27887425 0.26822364 0.20610999 -0.898849 -0.17438278 -0.63559026 0.2659147 -1.3111134
_ -0.08522265 0.07762344 -0.12702748 -0.04904505 -0.12544505 -0.16576284 0.026054263 0.028155599 0.17716712 0.0556225 -0.13151702 -0.017977202 -0.039405037 -0.13801807 -0.05883912 -0.16323373 -0.16701736 0.09613424 0.16881391 -0.074443005 -0.037448697 0.011025447 -0.10714597 -0.06284432 -0.03195483 0.03651073 0.18240933 0.1565461 0.2267493 0.05012347 0.016121875 0.25603002 -0.26158825 -0.17713043 -0.16062108 -0.06497078 -0.104881115 0.30171973 -0.06280584 0.07274311 -0.19297796 -0.22597891 -0.1091604 -0.028843924 0.054693725 -0.3527829 -0.04332392 -0.27866694 0.05022716 -0.25832647
